1.26465
-0.257647
0.329003
0.584777
0.277125
-1.64205
-0.403517
0.787784
-1.42983
-1.07034
-1.23229
0.88924
0.265499
1.00487
1.20715
0.678635
-0.48244
-0.455308
2.10084
1.05418
-1.89414
1.0937
-0.132928
0.267369
0.983576
0.458766
-0.955426
0.657378
0.254188
-0.494099
1.3506
-0.37499
0.673664
-1.15549
-0.127663
-0.23964
-0.0430034
-0.728175
-0.327496
0.681773
-0.607018
1.20832
1.27347
-0.214921
-0.239283
-0.352538
1.84423
1.22844
-1.25977
-0.711053
0.720218
-0.774367
0.868216
0.944391
0.32289
0.626935
-0.328971
1.11615
-0.329632
-0.461801
0.95803
-0.387939
0.498565
-0.669271
1.43693
-0.125945
1.50062
-0.0894374
0.332419
1.47823
-0.633807
1.37805
-0.56041
1.21457
0.10726
-0.605597
-0.776556
1.05611
1.03018
0.937491
0.618378
-0.673357
0.229414
0.519092
0.81422
0.0921633
-1.26791
-1.05947
0.123907
0.0413684
0.840869
1.55662
0.486136
-1.15297
0.461061
1.37899
0.401075
0.474779
0.977267
0.554057
0.852884
-0.157399
0.614367
-0.266353
1.22326
0.0507071
1.20695
-1.63773
0.0631421
1.29034
1.534
0.46887
-0.663865
-0.468164
0.856014
1.20189
-0.0714629
-0.460617
1.28478
-0.208364
-0.0450456
0.363155
0.338515
0.555215
1.89821
1.23283
-0.349014
0.0165082
-1.05599
0.0942695
-0.823063
-0.861302
-0.764373
1.6325
-0.00803106
-0.474292
2.61787
1.22695
2.12754
-1.26977
-0.0410237
-0.22456
-1.10658
0.667217
-0.570456
1.9131
-1.57425
-1.27726
2.20849
-1.2694
-0.186823
-0.249675
-1.16144
0.172059
-0.109095
-0.18566
0.0556911
-0.0445034
-1.76167
-0.545708
-0.593072
1.24394
-0.738184
0.294057
-0.509967
0.824141
0.105388
-0.789531
-0.460353
-1.02756
-0.378339
-0.00134329
1.27798
0.304044
-1.60299
-1.3973
1.0252
0.516923
-0.6299
1.69842
0.334543
-0.762311
0.374063
0.127333
0.65191
-1.22338
-0.203169
0.567259
0.523443
0.104903
0.638146
0.679101
-1.3304
-0.722534
-0.890357
-0.646641
-0.267062
-0.763006
0.378492
-0.351885
0.00561849
-0.00468177
-0.525909
-0.450361
0.837809
-0.98501
-1.30767
-1.00689
-1.02823
1.9002
-0.94055
0.389556
-1.64778
0.0609867
1.45251
0.540492
0.407556
-0.625301
-0.939807
-0.498897
-0.726316
0.233718
-0.312471
-1.3835
0.543543
-0.856058
-1.23408
0.0703408
-0.944339
-0.510946
-0.72062
0.395311
-0.611276
0.1656
0.0099766
2.5197
-0.644659
-1.02999
-0.47802
0.497423
-0.0294122
0.206866
-0.847043
-0.346319
-0.246349
0.156634
-0.803371
0.07949
-1.19854
-1.42125
0.044972
-0.350679
-0.454369
-0.426945
-0.361591
-0.0363101
-0.25305
-0.564749
-1.20281
-0.161624
0.247767
1.40341
-0.711136
-0.281436
0.224553
-1.46514
-0.176668
0.246202
-0.564408
0.341329
-0.0107849
-1.40402
0.900275
-0.691084
0.0701244
-0.183197
-0.310012
0.00460181
1.30168
0.0746674
0.641787
-1.78775
-0.477275
0.275373
1.4535
-0.682395
0.529194
-0.934105
0.585214
-0.847487
0.315745
0.485005
-0.33404
1.11169
-0.907128
0.175584
0.416846
0.161886
0.271026
-0.370691
0.611611
0.310927
-0.177993
-0.779227
0.717068
-0.252705
0.585608
0.163144
-0.378304
-0.032453
0.644278
0.264964
-0.175659
-0.522956
0.467372
-0.938314
-0.0602065
-0.515937
-0.841155
-0.786761
-0.0223971
-0.701357
0.916807
-2.02465
-0.72134
0.326334
-0.148132
0.303505
0.903693
0.02508
0.293174
-0.126142
-0.983267
-0.755603
-0.116388
0.175435
-0.365209
0.0313121
1.45655
-0.798583
0.554717
-0.577583
-0.539281
0.631989
0.657808
0.0125282
0.0190102
0.0430802
0.25364
0.113465
0.716253
-0.00643273
-0.160999
0.6771
0.199599
-0.0544752
0.459865
0.722214
-0.589955
0.448441
-0.0296967
0.686015
-2.05837
-0.217092
0.19343
-0.114821
0.461754
-1.50555
0.750545
-0.505908
-0.0896193
1.71808
1.32581
-0.00602768
-0.6647
0.0460962
0.291645
-1.34156
-1.05039
-0.62203
0.0616315
-0.266045
0.525493
0.288139
2.22274
0.344664
0.0928725
0.439465
0.312469
0.918618
-0.0828478
0.76026
0.834871
0.727888
0.984121
1.17508
0.564255
1.71138
1.81491
-1.13299
-1.36809
-1.09716
1.2351
1.81061
1.24516
1.85339
-0.75984
-0.48533
0.295305
-1.18721
-0.668901
0.0692131
-0.514083
-1.45243
2.23148
-0.918616
-0.228878
0.277989
0.393471
1.11951
-0.658144
-1.99027
0.394124
0.921988
0.0129901
1.78396
1.87744
0.648062
-1.48155
-0.305214
1.30204
1.18978
0.270149
0.0206301
0.438307
0.880552
0.849676
2.26072
-1.33437
1.39755
0.47774
1.50457
0.209591
-1.15997
1.48522
-0.0361984
-1.27292
-0.950089
1.31734
-0.584811
-1.12785
-2.57606
0.255503
0.75317
0.360918
1.47711
-1.27677
0.727761
0.449647
-0.133753
-1.11845
0.27344
2.0335
2.24023
1.23671
1.15371
-0.244708
-0.557953
2.14725
-1.20433
0.696112
1.46521
-0.674457
1.43284
2.46928
1.87265
1.22375
-0.0943502
-0.86908
1.08155
0.627137
1.1308
1.62147
1.24293
0.355439
-0.299175
0.523449
0.873216
1.95388
-1.32412
-1.30276
1.05308
0.492271
1.8718
1.67093
-1.32985
0.381367
0.236932
1.44226
-0.429345
-0.510907
0.43165
0.886566
0.538726
-0.329145
-2.10951
-1.23523
-0.881058
1.46343
1.42354
-0.827202
1.38922
